{
  "defaults": {},
  "inputs": [
    {
      "name": "sjet_3_pt",
      "offset": -4566.984196049099,
      "scale": 3.591915671341246e-05
    },
    {
      "name": "sjet_3_eta",
      "offset": -0.00012403387536550421,
      "scale": 1.0737067906633804
    },
    {
      "name": "sjet_3_phi",
      "offset": -0.0012078499130755563,
      "scale": 0.5520320081101504
    },
    {
      "name": "sjet_3_e",
      "offset": -8181.394406752588,
      "scale": 2.010385546203804e-05
    },
    {
      "name": "sjet_3_mv2c10_binned",
      "offset": 0.9433034321634248,
      "scale": 3.9960355404020675
    },
    {
      "name": "sjet_2_pt",
      "offset": -52809.76750507693,
      "scale": 7.265380291661569e-06
    },
    {
      "name": "sjet_2_eta",
      "offset": -0.00020752831781733396,
      "scale": 1.0676491066315854
    },
    {
      "name": "sjet_2_phi",
      "offset": -0.0017477557506761345,
      "scale": 0.5520651662340583
    },
    {
      "name": "sjet_2_e",
      "offset": -82703.30235854963,
      "scale": 4.926125917019788e-06
    },
    {
      "name": "sjet_2_mv2c10_binned",
      "offset": 0.6661305239749297,
      "scale": 1.8245870242264688
    },
    {
      "name": "sjet_1_pt",
      "offset": -1449512.8108503798,
      "scale": 1.2081775110437647e-06
    },
    {
      "name": "sjet_1_eta",
      "offset": -8.778424989697465e-05,
      "scale": 1.0807905895510819
    },
    {
      "name": "sjet_1_phi",
      "offset": -0.0011913520744595782,
      "scale": 0.5520238699582924
    },
    {
      "name": "sjet_1_e",
      "offset": -1958914.8909853538,
      "scale": 9.197311361611618e-07
    },
    {
      "name": "sjet_1_mv2c10_binned",
      "offset": -0.17609859144968068,
      "scale": 2.625333673131879
    },
    {
      "name": "rcjet_m",
      "offset": -164304.68511461807,
      "scale": 6.652555412744861e-06
    },
    {
      "name": "rcjet_numConstituents",
      "offset": -1.3533040943252426,
      "scale": 1.6708131853899506
    },
    {
      "name": "rcjet_pt",
      "offset": -1502417.0690599962,
      "scale": 1.2240062661151329e-06
    }
  ],
  "layers": [
    {
      "activation": "rectified",
      "architecture": "dense",
      "bias": [
        0.0002120362623827532,
        0.00033259260817430913,
        0.0002893220807891339,
        -0.002647516317665577,
        0.011168768629431725,
        0.0011559772538021207,
        0.01386822946369648,
        0.0001722345914458856,
        0.017201147973537445,
        6.544902134919539e-05,
        0.001038532005622983,
        0.0005671274266205728,
        1.1149341844429728e-05,
        0.00013486998795997351,
        -0.0011202315799891949,
        0.0007671137573197484,
        5.260999751044437e-05,
        -0.00015958219591993839,
        -0.00015393280773423612,
        0.00011698151502059773,
        2.5725581508595496e-05,
        -0.0003742838744074106,
        -0.00035459434730000794,
        8.07000651548151e-06,
        -0.00043449431541375816,
        -0.00014881050447002053,
        -4.2585863411659375e-05,
        1.4527629900840111e-05,
        0.06181185320019722,
        0.0011387510458007455,
        -1.779415015334962e-06,
        0.06391628086566925
      ],
      "weights": [
        -0.0026404696982353926,
        -0.036310113966464996,
        0.04733457416296005,
        -0.0028287123423069715,
        -0.0056563010439276695,
        0.0002887053124140948,
        -0.2367888242006302,
        0.04793531447649002,
        -0.006947021000087261,
        0.17358078062534332,
        0.08321573585271835,
        0.26178470253944397,
        -0.09327716380357742,
        -0.00010726952314144,
        0.03380230441689491,
        -0.5709661841392517,
        -0.07556630671024323,
        -0.10834329575300217,
        0.0006542304181493819,
        0.033662401139736176,
        0.0006104473141022027,
        0.00018334948981646448,
        0.0003202961233910173,
        0.00041614245856180787,
        0.04962892457842827,
        0.0009832711657509208,
        0.09157107025384903,
        0.000331300834659487,
        -0.0002960574929602444,
        -0.0891856998205185,
        0.0007465957896783948,
        -0.0033533594105392694,
        -8.242184412665665e-05,
        0.1668848693370819,
        0.0006559413741342723,
        -0.00021635342272929847,
        3.734731944859959e-05,
        -0.0849492996931076,
        0.001082461909390986,
        -0.009970813989639282,
        0.004028590861707926,
        0.15988239645957947,
        0.10675666481256485,
        0.0003545373328961432,
        0.1254548281431198,
        0.00998060591518879,
        -2.0068449885002337e-05,
        -0.0003571877896320075,
        0.0008530830382369459,
        -0.07913653552532196,
        0.00043086495134048164,
        0.00034315595985390246,
        0.013231894932687283,
        4.140942473895848e-05,
        0.000798264576587826,
        0.006142902188003063,
        -0.00011474714847281575,
        0.05416824668645859,
        0.00026784228975884616,
        0.09160102158784866,
        0.06409446895122528,
        -0.0010609289165586233,
        -0.04764026030898094,
        0.09120237827301025,
        -0.07818527519702911,
        -0.069632887840271,
        -0.0010451084235683084,
        0.14562289416790009,
        0.01540013775229454,
        0.00023670925293117762,
        0.12695297598838806,
        -0.17308175563812256,
        -0.0004849278775509447,
        -0.08598313480615616,
        0.10417036712169647,
        -0.00048634244012646377,
        -0.09133846312761307,
        -0.0009219579515047371,
        -0.15630684792995453,
        -0.10636124014854431,
        -0.013447556644678116,
        -0.20018370449543,
        -0.06761760264635086,
        0.24061667919158936,
        0.00012590456753969193,
        -0.07825569063425064,
        0.0029166212771087885,
        -0.03580242395401001,
        -0.12017413228750229,
        0.08725865185260773,
        9.60171819315292e-05,
        0.15047182142734528,
        -0.0010010115802288055,
        0.02654864639043808,
        0.016665443778038025,
        0.059405986219644547,
        0.0004905255627818406,
        -0.0007939276983961463,
        -0.0026146331802010536,
        0.005027246195822954,
        -0.0012009524507448077,
        -0.1702640801668167,
        -0.0007969029829837382,
        0.0029225428588688374,
        -0.0008916726801544428,
        -0.0007730335928499699,
        0.002324281958863139,
        -0.0021326879505068064,
        -0.0004990535089746118,
        0.0029155632946640253,
        0.0005520222475752234,
        0.0009636138565838337,
        -0.03377438336610794,
        0.01718202233314514,
        0.02807961031794548,
        -0.000961078389082104,
        -0.0001344905758742243,
        0.08927781879901886,
        2.3948183297761716e-05,
        -0.044738925993442535,
        0.0003166843962389976,
        0.020105697214603424,
        0.0416250005364418,
        0.0002794874890241772,
        0.0002191287640016526,
        -0.03791371360421181,
        -0.03592528775334358,
        0.08031114935874939,
        -6.8971625296399e-05,
        0.08455342054367065,
        0.13202807307243347,
        -6.55514713798766e-06,
        -0.05917380750179291,
        0.0001239997654920444,
        0.00038573661004193127,
        0.07105869799852371,
        -0.00026801900821737945,
        -0.003479194128885865,
        0.0003812225768342614,
        0.16278107464313507,
        0.17152942717075348,
        -2.9578923204098828e-05,
        0.1329805701971054,
        -0.17018985748291016,
        -0.0004072883748449385,
        -0.13175903260707855,
        -0.0006666910485364497,
        0.06278127431869507,
        -0.17717482149600983,
        -8.747239917283878e-05,
        0.16029681265354156,
        -0.03389141708612442,
        -0.029515447095036507,
        -0.014706178568303585,
        -0.14020973443984985,
        -0.028895698487758636,
        0.034058623015880585,
        0.00368783762678504,
        0.07666623592376709,
        -0.5605959296226501,
        -0.017742792144417763,
        0.21558286249637604,
        -0.0009983687195926905,
        0.00021664766245521605,
        -0.0379490964114666,
        0.00012783326383214444,
        6.467817729571834e-05,
        3.5496083000907674e-05,
        -0.0342085100710392,
        0.07683468610048294,
        0.018085772171616554,
        -3.7502013583434746e-05,
        0.054024480283260345,
        0.00020241197489667684,
        -0.03139655292034149,
        0.005404350813478231,
        -0.00016139015497174114,
        0.0005682951305061579,
        -3.809481131611392e-05,
        0.007043404038995504,
        -0.0002924873260781169,
        0.03617503494024277,
        0.0015948077198117971,
        0.0026244106702506542,
        -0.000627390225417912,
        -0.0012923326576128602,
        -0.14143308997154236,
        0.00030466276803053916,
        0.011115295812487602,
        0.0031556838657706976,
        8.684759222887806e-07,
        0.11220399290323257,
        0.0005234755808487535,
        0.02199903503060341,
        0.01442634779959917,
        0.1443118304014206,
        -0.01243503112345934,
        -0.05602771416306496,
        -0.00013125505938660353,
        -0.01716103032231331,
        -0.13724195957183838,
        -0.021427929401397705,
        -9.100112220039591e-05,
        -0.18856491148471832,
        -0.000580872583668679,
        0.0052878339774906635,
        0.08193928003311157,
        -0.0011554807424545288,
        0.001578352297656238,
        0.020890148356556892,
        0.13006065785884857,
        0.07878012955188751,
        -0.0735572874546051,
        -0.2114059180021286,
        -0.1355871558189392,
        0.0015480309957638383,
        -0.0006131266709417105,
        0.06809189915657043,
        1.2437354826033697e-06,
        0.0006136765005066991,
        1.7437248970963992e-05,
        0.0008295814041048288,
        -0.0009706043056212366,
        -0.00030521201551891863,
        0.000496126594953239,
        0.07745768874883652,
        -1.8439028281136416e-05,
        -0.015274271368980408,
        2.1089395886519924e-05,
        -0.0007181646069511771,
        0.0001086039119400084,
        0.0007227729656733572,
        0.0006267305579967797,
        7.658770300622564e-06,
        4.269776582077611e-06,
        -0.0957476943731308,
        -0.018819130957126617,
        -0.03234684839844704,
        0.059400398284196854,
        -0.1496122032403946,
        0.23293165862560272,
        -0.020469771698117256,
        0.07709784060716629,
        0.014995288103818893,
        -0.010211358778178692,
        -0.13022635877132416,
        0.039924442768096924,
        0.05171484127640724,
        -0.045668698847293854,
        -0.6433458924293518,
        0.07098833471536636,
        0.0718405544757843,
        -0.00017915081116370857,
        0.00867429282516241,
        -0.001002302742563188,
        0.00038937851786613464,
        -0.05793260410428047,
        -9.463373135076836e-05,
        -0.22923503816127777,
        6.183134246384725e-05,
        0.01822688616812229,
        -0.061691299080848694,
        -0.06300495564937592,
        0.2154129594564438,
        -0.0009336232324130833,
        0.00639670854434371,
        0.0005343389930203557,
        -0.3043278157711029,
        0.18435919284820557,
        -0.0004910769057460129,
        0.0006816288805566728,
        0.00036711484426632524,
        -0.0005858847871422768,
        -0.0002645303902681917,
        -0.005138803273439407,
        -0.04081016778945923,
        3.689730147016235e-05,
        0.0010422347113490105,
        -0.003250479232519865,
        -0.010297139175236225,
        -0.00028850091621279716,
        -0.001962102483958006,
        -0.0021737879142165184,
        -0.009531915187835693,
        0.003236105665564537,
        -9.505070011073258e-06,
        0.06188081204891205,
        -0.0003984509385190904,
        -0.000980514450930059,
        -0.04158170148730278,
        -3.079606540268287e-05,
        -0.0027005679439753294,
        0.03381144627928734,
        -7.023088255664334e-05,
        0.0008092157077044249,
        -4.438309770193882e-05,
        0.0013728628400713205,
        0.0012112713884562254,
        -0.001538324635475874,
        0.04538995772600174,
        0.0008312460267916322,
        -0.020661214366555214,
        -0.008948427625000477,
        -0.0009357889648526907,
        0.0011175676481798291,
        -0.05178606137633324,
        -0.00016587093705311418,
        0.11648979783058167,
        -0.00030338807846419513,
        0.00215691770426929,
        -4.841934787691571e-05,
        0.00042627204675227404,
        -0.02117551676928997,
        -0.0003213919117115438,
        0.0006137971067801118,
        0.00031968296389095485,
        0.023271469399333,
        -0.08548848330974579,
        -0.00024491542717441916,
        0.06140357628464699,
        0.20344719290733337,
        0.00024732714518904686,
        0.0003399376873858273,
        0.001978930551558733,
        0.00035367452073842287,
        0.0001330753875663504,
        8.696561417309567e-05,
        0.047535497695207596,
        0.0002568157506175339,
        5.280938057694584e-05,
        0.0002618693106342107,
        -0.0006617921753786504,
        -0.0004489247512537986,
        0.06088527664542198,
        -0.0001360827882308513,
        0.00034785375464707613,
        0.00015699736832175404,
        1.7007934729917906e-05,
        0.09557970613241196,
        4.1045539546757936e-05,
        0.000424721249146387,
        2.365051295782905e-05,
        -0.00044879456982016563,
        0.11337224394083023,
        -9.912074165185913e-05,
        0.005955033469945192,
        0.05528360605239868,
        -0.001092677004635334,
        -0.08430659025907516,
        -0.0006394709344021976,
        0.11518068611621857,
        0.09907183051109314,
        -0.00018378750246483833,
        -0.026766275987029076,
        0.0003596298338379711,
        0.0006141085177659988,
        0.07680089771747589,
        0.13621102273464203,
        0.000627191155217588,
        -0.0002689590910449624,
        -0.001224567531608045,
        -0.00601192656904459,
        -0.00017659015429671854,
        -0.00033002669806592166,
        -0.00010628122254274786,
        -0.00023246087948791683,
        -0.007950822822749615,
        -9.416438115295023e-05,
        0.0005775198806077242,
        -0.0002460344403516501,
        1.0366360584157519e-05,
        0.06597506999969482,
        -0.00029973831260576844,
        0.0012819680850952864,
        0.00018685990653466433,
        0.056729357689619064,
        -0.017556292936205864,
        0.08360757678747177,
        -7.222357817227021e-05,
        0.006114212330430746,
        -0.0008133813389576972,
        0.00022483443899545819,
        9.204875095747411e-05,
        0.07685264945030212,
        -0.00033511483343318105,
        -0.0003520171158015728,
        0.0746748298406601,
        -0.0006681265076622367,
        1.1502799679874443e-05,
        -0.00037237690412439406,
        -0.0002400045341346413,
        0.00031892271363176405,
        -0.0005636668647639453,
        -0.0001869149273261428,
        -0.003258235054090619,
        -8.024346243473701e-06,
        -0.0004687590117100626,
        -0.0015304608969017863,
        4.095780968782492e-05,
        0.014126576483249664,
        -0.00013977680646348745,
        -0.0018828536849468946,
        0.0495360903441906,
        3.87000800401438e-05,
        -0.0011165051255375147,
        -0.11903221905231476,
        0.09326932579278946,
        -0.029975255951285362,
        -0.00025981696671806276,
        0.17968937754631042,
        0.00014977999671828002,
        3.98340444007772e-06,
        -0.0015762289986014366,
        -0.0003007338964380324,
        5.937296009506099e-06,
        -0.0030895520467311144,
        -6.211785603227327e-06,
        0.05557023361325264,
        0.00014179084973875433,
        9.070242231246084e-05,
        -0.030681047588586807,
        -2.3605956812389195e-05,
        -0.00024608077364973724,
        -3.167366958223283e-05,
        -3.577866300474852e-05,
        0.00010615151404635981,
        -3.730211028596386e-05,
        -0.009535056538879871,
        -3.12748525175266e-05,
        0.17593885958194733,
        -6.243757525226101e-05,
        -4.258724402461667e-06,
        -0.0007255988894030452,
        -6.710841989843175e-05,
        -0.0006237509078346193,
        0.0003731547622010112,
        0.013210968114435673,
        -0.000461812800494954,
        -0.0012923500034958124,
        -0.0034388555213809013,
        -0.017311688512563705,
        -0.00015294659533537924,
        -0.00291210669092834,
        0.000251521822065115,
        0.0014436886413022876,
        -0.029174789786338806,
        0.031194353476166725,
        -0.00018902902957051992,
        -0.0038036855403333902,
        -0.015243859961628914,
        0.05181235820055008,
        -0.0011968871112912893,
        -0.0005390539881773293,
        0.00038582118577323854,
        -0.0004108819121029228,
        -0.00027929426869377494,
        -0.0011560647981241345,
        -0.0005274233408272266,
        -0.0008334177546203136,
        -0.0013445847434923053,
        0.0007044338854029775,
        -0.00105430674739182,
        -0.001205709995701909,
        0.0026542937848716974,
        0.0009850496426224709,
        -0.000274831079877913,
        -0.01174333319067955,
        0.0006557157612405717,
        0.0004974386538378894,
        0.12954449653625488,
        -2.0358380425022915e-05,
        7.211978663690388e-05,
        0.00034264507121406496,
        0.04576151818037033,
        -0.05714115500450134,
        0.00015528079529758543,
        0.026886316016316414,
        -0.013380669057369232,
        9.502648936177138e-06,
        -0.06588327139616013,
        0.00037766568129882216,
        -0.005237996112555265,
        0.0003766634617932141,
        6.850544014014304e-05,
        0.001225699088536203,
        0.04337979853153229,
        -7.490470306947827e-05,
        -8.900710781745147e-06,
        -0.00022802420426160097,
        0.001432189834304154,
        0.00011562144209165126,
        -5.4610183724435046e-05,
        0.044261153787374496,
        -4.626056397682987e-05,
        0.00039865958387963474,
        -0.00010750565706985071,
        0.0015161451883614063,
        8.910467295208946e-05,
        -0.0004489124403335154,
        -0.00549883209168911,
        -3.048506550840102e-05,
        -0.0007281925063580275,
        -0.00012100745516363531,
        0.0006051035597920418,
        -0.00012436755059752613,
        -0.2559562027454376,
        -0.009875057265162468,
        0.0002956005046144128,
        0.00010023512004408985,
        -0.0006325157592073083,
        0.15371495485305786,
        -0.00837490800768137,
        -0.020973600447177887,
        -0.004269338678568602,
        -0.1066075786948204,
        0.08838444948196411,
        0.024854613468050957,
        0.07896441966295242,
        0.0005959808477200568,
        -0.0005709297256544232,
        -0.07627547532320023,
        0.01735113374888897,
        0.048350729048252106,
        -0.00041424710070714355,
        0.00022763443121220917,
        -0.0424351803958416,
        0.0371687076985836,
        0.09989572316408157,
        -0.0005637162830680609,
        -0.0009742187685333192,
        0.12551429867744446,
        0.030921554192900658,
        -0.0005112416110932827,
        -0.0004018424660898745,
        -0.0001270099455723539,
        -0.03450493887066841,
        0.00028678166563622653,
        -0.02068156935274601,
        0.01659923419356346,
        -9.460273577133194e-05,
        5.821325430588331e-07,
        -2.372164999542292e-06,
        3.506474968162365e-07,
        -1.5826552726139198e-06,
        -7.771492391839274e-07,
        5.458480814013456e-07,
        8.648633524899196e-07,
        6.033782824488299e-07,
        -1.808115598578297e-06,
        1.1387584208932822e-07,
        1.0669083394532208e-06,
        -1.287686245632358e-06,
        6.781376100661873e-07,
        -1.0364443596699857e-06,
        -4.877697961092053e-07,
        -1.758454999389869e-07,
        1.981547939067241e-06,
        -1.441964514015126e-06,
        0.00030541146406903863,
        -0.1106863021850586,
        0.0004850251425523311,
        7.92288628872484e-05,
        2.6140729460166767e-05,
        -0.05113551765680313,
        0.07330120354890823,
        -0.0023549178149551153,
        0.019328655675053596,
        0.022505415603518486,
        0.10093352198600769,
        0.039829712361097336,
        0.0020997868850827217,
        -0.015672175213694572,
        0.11120627820491791,
        0.059871524572372437,
        -0.004710793029516935,
        -0.09115362167358398
      ]
    },
    {
      "architecture": "normalization",
      "bias": [
        -0.17784231901168823,
        -0.06659027934074402,
        -0.059919871389865875,
        -0.13337083160877228,
        -0.16383305191993713,
        -0.014348060823976994,
        -0.05625017359852791,
        -0.1681964099407196,
        -0.2067292332649231,
        -0.05243057757616043,
        -0.07387970387935638,
        -0.13457682728767395,
        -0.04681536555290222,
        -0.18126240372657776,
        -0.08202236890792847,
        -0.01942254975438118,
        -0.008537039160728455,
        -0.09630871564149857,
        -0.04759470373392105,
        -0.11132624745368958,
        -0.08462435007095337,
        -0.03106941655278206,
        -0.1065913587808609,
        -0.04170597344636917,
        -0.029688097536563873,
        -0.006243589799851179,
        -0.04145568236708641,
        -0.018666742369532585,
        -0.09463690966367722,
        -0.11798954755067825,
        3.2777712476672605e-05,
        -0.08601848781108856
      ],
      "weights": [
        6.358221054077148,
        4.682376384735107,
        3.701904058456421,
        4.2901611328125,
        8.881305694580078,
        12.400132179260254,
        11.502752304077148,
        3.222188949584961,
        6.7266411781311035,
        16.716493606567383,
        9.251201629638672,
        6.9760355949401855,
        12.91728401184082,
        6.257870197296143,
        7.577733039855957,
        24.726028442382812,
        16.875600814819336,
        5.945688724517822,
        9.717588424682617,
        4.300822734832764,
        11.984062194824219,
        6.798801898956299,
        4.93319034576416,
        5.476165771484375,
        24.240734100341797,
        17.771434783935547,
        12.785665512084961,
        24.578004837036133,
        10.850443840026855,
        4.7652740478515625,
        29.865306854248047,
        9.315079689025879
      ]
    },
    {
      "activation": "rectified",
      "architecture": "dense",
      "bias": [
        -0.0005802851519547403,
        0.00025096817989833653,
        -0.00011151344369864091,
        3.504275809973478e-05,
        -0.00014772442227695137,
        -0.019272148609161377,
        -1.7709262465359643e-05,
        -0.00045850223978050053,
        8.711128612048924e-05,
        -0.000570566626265645,
        0.00031588104320690036,
        3.2917614589678124e-05,
        6.673033203696832e-05,
        0.0010385767091065645,
        0.0005089019541628659,
        0.00018897249537985772,
        -1.5122467630135361e-05,
        -0.00016147988208103925,
        1.658080509514548e-05,
        -5.087397221359424e-05,
        0.0005750560667365789,
        7.74026193539612e-06,
        -0.00042320843203924596,
        -0.0011865233536809683,
        0.0003412411024328321,
        0.0004553210164885968,
        0.00030156481079757214
      ],
      "weights": [
        0.01837252452969551,
        -2.7466965548228472e-05,
        -0.00019365106709301472,
        -0.0019220651593059301,
        0.1583949625492096,
        0.000519337656442076,
        0.003052392043173313,
        0.0881577581167221,
        -0.03128726780414581,
        0.016957730054855347,
        0.011731988750398159,
        0.047667283564805984,
        -0.00028055848088115454,
        0.00036408021696843207,
        -0.08476810902357101,
        -9.484442853135988e-05,
        -0.026782426983118057,
        0.0008221599273383617,
        -0.02951778657734394,
        0.0001889269769890234,
        0.011640610173344612,
        0.00014082773122936487,
        0.007417766377329826,
        6.259178917389363e-05,
        -0.008847878314554691,
        -8.048029849305749e-05,
        0.006585891358554363,
        0.00017753095016814768,
        0.04030817374587059,
        0.00026232702657580376,
        1.3536819665205257e-07,
        -0.0007800758467055857,
        0.14153067767620087,
        0.0008589126518927515,
        0.0008168607018887997,
        -0.15278828144073486,
        0.0020495401695370674,
        0.0010700579732656479,
        0.0004021076310891658,
        0.20511631667613983,
        0.1419394165277481,
        -8.07541364338249e-05,
        -0.07010512053966522,
        -0.00019185086421202868,
        9.75672373897396e-05,
        0.05492989346385002,
        0.0034618116915225983,
        9.390663035446778e-05,
        0.02120318077504635,
        0.0001939072972163558,
        -0.00011178971908520907,
        0.0007237681420519948,
        -0.00017865595873445272,
        0.0009279869846068323,
        0.0006329010939225554,
        -0.04074018821120262,
        -0.0017842665547505021,
        -0.033255886286497116,
        0.0005593681707978249,
        6.3938041421351954e-06,
        0.00046161655336618423,
        0.0004875197191722691,
        6.043804887667648e-07,
        0.0008918711100704968,
        0.005638469476252794,
        -0.0007141502574086189,
        -0.0009638630435802042,
        0.022317543625831604,
        6.2857499870006e-05,
        -0.00020199264690745622,
        -0.00014255258429329842,
        -0.0011933401692658663,
        -0.07474479079246521,
        0.00013328554632607847,
        -0.0002798401692416519,
        0.060443487018346786,
        -0.0002675109717529267,
        -0.00012914022954646498,
        0.019087575376033783,
        0.0894538015127182,
        0.06943947821855545,
        -0.000587850867304951,
        -0.0010782578028738499,
        -0.003532135859131813,
        -0.00014775396266486496,
        -0.0006346986046992242,
        0.04098838195204735,
        -0.0003304135170765221,
        -7.046893733786419e-05,
        5.3491967264562845e-06,
        -0.00025072810240089893,
        0.0028253733180463314,
        0.026822684332728386,
        -0.001719810999929905,
        6.409894126591098e-07,
        -0.012809224426746368,
        0.0017301507759839296,
        -4.913222073810175e-05,
        0.00048424548003822565,
        -0.0637369379401207,
        0.0008777009788900614,
        -0.00042209928506053984,
        -6.239856156753376e-05,
        -0.0011749676195904613,
        0.042465124279260635,
        -0.01706220582127571,
        -0.10737757384777069,
        -0.0007315759430639446,
        0.00023073410557117313,
        0.010262127965688705,
        0.03833171725273132,
        0.0006360565894283354,
        1.56401965796249e-05,
        -0.002822551177814603,
        9.353676432510838e-05,
        -0.0004250406345818192,
        -0.036985043436288834,
        0.0008832707535475492,
        0.05531705170869827,
        -0.0004361766914371401,
        -0.005603920668363571,
        -0.00013533364108297974,
        -1.6301217328873463e-05,
        0.003906313329935074,
        -0.0026509349700063467,
        0.0004314457764849067,
        6.273337476159213e-07,
        -0.09655918180942535,
        0.06868897378444672,
        -0.007374662905931473,
        0.05724753811955452,
        0.040570661425590515,
        0.00229983520694077,
        0.0002991608052980155,
        0.0002692986454349011,
        8.69866635184735e-05,
        0.00039577469578944147,
        0.0009804446017369628,
        6.827354081906378e-05,
        -0.06162494048476219,
        8.363141387235373e-05,
        -5.893653360544704e-05,
        -0.00015423021977767348,
        0.00012844752927776426,
        -6.2480585256707855e-06,
        0.1241777241230011,
        0.001949860597960651,
        -3.6603618355002254e-05,
        0.00031952655990608037,
        -0.00023642544692847878,
        0.06571748852729797,
        0.0005067480378784239,
        0.03332281857728958,
        -0.00015043281018733978,
        -0.00012037259148200974,
        -0.00012388908362481743,
        -0.0008757593459449708,
        -0.00017540043336339295,
        -6.403795396181522e-07,
        0.0011188702192157507,
        0.008015873841941357,
        0.001300251460634172,
        -6.201885753398528e-06,
        -0.005815289448946714,
        0.014455975033342838,
        0.002819775603711605,
        0.00020279971067793667,
        0.004692577291280031,
        0.04398107901215553,
        0.0005041018011979759,
        0.0003054810222238302,
        -0.00012251338921487331,
        -0.0020935924258083105,
        -0.0018680553184822202,
        0.0054153334349393845,
        0.003967327065765858,
        -0.00085953448433429,
        0.017542432993650436,
        1.5366833395091817e-05,
        0.00035760452738031745,
        -0.0035931516904383898,
        0.007883608341217041,
        0.00836281105875969,
        0.008461515419185162,
        -0.005115197505801916,
        0.0007739681168459356,
        0.0022408454678952694,
        0.00468401238322258,
        0.0045146457850933075,
        0.000552645418792963,
        2.964407940453384e-06,
        -0.0012141871266067028,
        -0.04196109622716904,
        -0.00019539087952580303,
        -0.00040952063864097,
        0.015985459089279175,
        0.17039115726947784,
        0.0038103030528873205,
        0.0008514075889252126,
        -0.00024537721765227616,
        -0.08862604200839996,
        0.025205573067069054,
        -0.00019261545094195753,
        0.07212430983781815,
        -0.0005486653535626829,
        -0.0005182164604775608,
        6.767200829926878e-05,
        0.0005551806534640491,
        -0.0002635211276356131,
        -0.055089320987463,
        0.0014324340736493468,
        -0.00028937478782609105,
        0.008349137380719185,
        -0.0003276363422628492,
        0.08772915601730347,
        0.00037462785257957876,
        -0.044175319373607635,
        -0.0011816212208941579,
        6.519244197988883e-05,
        0.0005863849655725062,
        0.0009155644802376628,
        -0.007894514128565788,
        -4.995602012058953e-07,
        -7.102458766894415e-05,
        0.025940660387277603,
        0.00026638965937308967,
        0.0002474304346833378,
        -2.7739855795516632e-05,
        -0.00037902413168922067,
        0.00011123238073196262,
        -0.000577624305151403,
        -0.0005482283886522055,
        -0.00038010571734048426,
        -0.0006880368455313146,
        0.0006242730305530131,
        -0.05045079439878464,
        0.0011504152789711952,
        0.11130502820014954,
        0.04458639770746231,
        0.002303102519363165,
        -0.0006588512333109975,
        -3.8878057239344344e-05,
        -0.0012570030521601439,
        -0.063541479408741,
        0.00012873562809545547,
        0.0008790229330770671,
        -7.663730502827093e-05,
        2.5737806936376728e-05,
        -0.0006917958962731063,
        0.00013724125165026635,
        0.00024499307619407773,
        0.0011624307371675968,
        -0.0034092599526047707,
        0.00019766394689213485,
        -3.988952812505886e-08,
        -0.0008941569249145687,
        0.000358029967173934,
        0.0003001659060828388,
        -3.7264282582327724e-05,
        0.0007017725147306919,
        -0.00015107879880815744,
        3.2920339435804635e-05,
        0.00041210127528756857,
        0.07561240345239639,
        0.0003978047170676291,
        0.0008110670605674386,
        -0.00036024520522914827,
        0.0001798411103663966,
        0.00035520235542207956,
        -0.0005268981913104653,
        0.0011249976232647896,
        8.458521733700763e-06,
        0.00564042991027236,
        -0.0005951512139290571,
        -0.005025220103561878,
        -3.9394490158883855e-06,
        -0.0008664710912853479,
        0.0006334028439596295,
        0.0001966797572094947,
        -0.00015981316391844302,
        0.00035411896533332765,
        0.04542464017868042,
        -6.826467870268971e-05,
        -0.0006829352350905538,
        0.00047463137889280915,
        0.0801965594291687,
        5.654393362419796e-07,
        -0.0027132569812238216,
        0.03379889950156212,
        -0.046807609498500824,
        0.1349117010831833,
        -0.00031319030676968396,
        0.005159443709999323,
        0.05632674694061279,
        0.000723829201888293,
        -0.0007071728468872607,
        0.00029668817296624184,
        0.0008827299461700022,
        -0.01337366458028555,
        0.01244794949889183,
        -0.0007818297599442303,
        0.00716673769056797,
        0.05934908613562584,
        -0.0014249522937461734,
        -0.0006454357062466443,
        0.004068086389452219,
        -0.0015459065325558186,
        -0.1891126036643982,
        0.0002123657613992691,
        -0.000849125673994422,
        0.0006190005224198103,
        -0.034947000443935394,
        0.004597298800945282,
        -7.944034587126225e-05,
        0.00021209595433901995,
        -0.001046697492711246,
        0.00028392596868798137,
        0.05803852155804634,
        1.8676073523238301e-06,
        -0.00031136939651332796,
        0.00039994469261728227,
        0.0004744608886539936,
        0.0011227544164285064,
        0.004135725554078817,
        -0.0002639749145600945,
        0.058781564235687256,
        0.00036796016502194107,
        0.0749225839972496,
        -0.12186132371425629,
        0.0003489273367449641,
        0.01761350780725479,
        0.029695918783545494,
        0.006850079633295536,
        0.0003009607899002731,
        0.05492705851793289,
        -0.019719215109944344,
        0.06127176433801651,
        8.352724398719147e-05,
        0.0008532635401934385,
        0.02674187161028385,
        0.00011825167166534811,
        0.0007727731135673821,
        0.0014765184605494142,
        -0.0002538624976295978,
        -0.0003071205283049494,
        -0.0005589491338469088,
        1.880445961432997e-05,
        0.0003167414979543537,
        0.07547685503959656,
        0.0006973318522796035,
        -3.633982714745798e-07,
        0.0001495064643677324,
        -0.0002232861443189904,
        0.0005525235901586711,
        0.012234590016305447,
        0.0017718636663630605,
        0.00035352460690774024,
        0.0011083778226748109,
        0.0002541633148211986,
        -0.10872771590948105,
        -0.0017286946531385183,
        0.003460174659267068,
        -0.00855313055217266,
        0.14901328086853027,
        -0.00043161973007954657,
        0.07901716232299805,
        0.001823432743549347,
        -0.0002650741662364453,
        -5.158614385436522e-06,
        -0.00019898088066838682,
        0.0001564076083013788,
        0.0006448338972404599,
        0.0005421169335022569,
        0.0006604167283512652,
        -0.002157257404178381,
        6.220730574568734e-05,
        -0.00029398276819847524,
        -4.800973692908883e-05,
        0.001712415716610849,
        -0.00023408552806358784,
        -0.009869963862001896,
        -0.013902654871344566,
        -7.86027214871865e-07,
        -0.07146111130714417,
        0.002585871145129204,
        0.0004547440621536225,
        0.10824835300445557,
        0.0005705900839529932,
        -0.009688911959528923,
        0.05450515076518059,
        -0.0016085898969322443,
        0.0008357840124517679,
        -9.528600639896467e-05,
        1.5252794582920615e-05,
        -0.00013174198102205992,
        0.17186759412288666,
        0.0016970373690128326,
        -0.0002763162774499506,
        0.007825053296983242,
        0.0009460736182518303,
        0.020578768104314804,
        -0.00018756298231892288,
        2.8388933515088866e-06,
        0.026250163093209267,
        -0.0006789553444832563,
        0.011150071397423744,
        -0.046063609421253204,
        0.0023873234167695045,
        -0.00032267338247038424,
        -4.126665953663178e-05,
        -4.198354872642085e-05,
        0.00046934778220020235,
        0.00016007253725547343,
        0.0006505800993181765,
        7.629762421856867e-07,
        -7.015623850747943e-05,
        0.06941603869199753,
        -0.007249621674418449,
        0.04298056662082672,
        -0.0005251729744486511,
        4.9822876462712884e-05,
        0.005024916026741266,
        0.001217705081216991,
        0.09977328032255173,
        0.015363985672593117,
        -0.0006823083967901766,
        -0.0001787403889466077,
        -0.0008162704762071371,
        4.9306141590932384e-05,
        -0.01276287529617548,
        0.003646192606538534,
        0.001317603513598442,
        0.026884661987423897,
        0.0004709163913503289,
        0.009450303390622139,
        -0.0006341851549223065,
        -0.006522634997963905,
        -0.00045944261364638805,
        -0.0018485045293346047,
        -0.0007177204824984074,
        0.020199177786707878,
        0.0013856219593435526,
        -3.094862768193707e-05,
        -0.0003580031043384224,
        -0.0033634856808930635,
        -0.0013323923340067267,
        5.4634369917039294e-08,
        0.0012497344287112355,
        0.046077217906713486,
        -0.0009774448117241263,
        -0.0013093921588733792,
        -0.03302449733018875,
        -0.053349900990724564,
        0.0005455552018247545,
        0.00016052303544711322,
        -0.04660938307642937,
        0.0178664643317461,
        -0.016831807792186737,
        -0.00023567791504319757,
        0.0010151555761694908,
        0.00011670857202261686,
        0.10526229441165924,
        0.0007875983719713986,
        -0.015341107733547688,
        -0.00015536350838374346,
        0.0011884059058502316,
        0.00022167891438584775,
        0.05119922757148743,
        -0.0009844821179285645,
        -0.0008462657569907606,
        -0.010217715054750443,
        0.06130720674991608,
        5.2705312555190176e-05,
        4.2578307329677045e-05,
        -0.00010683056461857632,
        -0.000904238608200103,
        -0.0033081204164773226,
        -0.0005637519643642008,
        9.82523999937257e-08,
        -0.000498601293656975,
        -0.022116491571068764,
        0.0005542769795283675,
        -0.006238515488803387,
        0.025520915165543556,
        0.0006609272677451372,
        -0.015577251091599464,
        -0.000287217932054773,
        0.0002068069443339482,
        -0.09630773216485977,
        -0.0004861489578615874,
        0.037940241396427155,
        -0.017293144017457962,
        -0.006656481418758631,
        -0.0642625093460083,
        -0.014819436706602573,
        0.015164957381784916,
        4.765388439409435e-05,
        -0.001455331570468843,
        -0.004658665042370558,
        0.0005534132360480726,
        -0.009905978105962276,
        0.00024222581123467535,
        -0.000996504444628954,
        -0.0006134741706773639,
        0.000157565125846304,
        0.0024022082798182964,
        -0.0024663119111210108,
        -0.00024742932873778045,
        -0.0040514180436730385,
        -0.05381742864847183,
        -4.1875105694089143e-07,
        0.05726372078061104,
        -0.024957863613963127,
        -0.0005434048944152892,
        -0.000363020139047876,
        0.04543879255652428,
        0.0002258648892166093,
        -0.011332368478178978,
        0.00015777059888932854,
        -0.007117860950529575,
        -0.012545301578938961,
        2.5773326342459768e-05,
        2.92545446427539e-05,
        -0.005394000094383955,
        -0.00042848585871979594,
        -0.03140716999769211,
        -6.811758066760376e-05,
        3.789649417740293e-05,
        -0.00011230599193368107,
        -0.0007144919945858419,
        -0.03487198054790497,
        -0.008420017547905445,
        0.0002620459417812526,
        -0.00027949450304731727,
        -9.695931657915935e-05,
        -0.005647101905196905,
        6.198053142725257e-06,
        -0.004029740579426289,
        5.260334728518501e-05,
        0.001949218101799488,
        1.2297878129174933e-05,
        -0.002061811974272132,
        1.0267228844895726e-06,
        -0.006484474055469036,
        0.0030150068923830986,
        0.000516172032803297,
        0.055907368659973145,
        0.07464860379695892,
        0.03834065422415733,
        0.032314881682395935,
        -0.08070286363363266,
        -0.0022757938131690025,
        0.00019205543503630906,
        -0.0026438464410603046,
        0.0032398607581853867,
        8.798224371275865e-06,
        -0.016207510605454445,
        -0.0007343432516790926,
        0.007147536613047123,
        0.00031652499455958605,
        0.03448599949479103,
        -0.0056305620819330215,
        -0.00038756884168833494,
        1.6934180166572332e-05,
        -0.0002014187048189342,
        -0.0003652956511359662,
        -0.002322376472875476,
        0.00035728461807593703,
        0.0003699329390656203,
        0.0024371962063014507,
        -0.0018946205964311957,
        1.084900759451557e-05,
        0.0012470502406358719,
        -0.043748579919338226,
        -1.1757588254113216e-06,
        -0.0044370610266923904,
        0.00020916727953590453,
        0.13610388338565826,
        0.02392624132335186,
        0.02369777485728264,
        0.0002947104803752154,
        -0.0004359504673629999,
        -0.07284855842590332,
        -0.06603892892599106,
        -0.0213943924754858,
        -0.0005823260871693492,
        0.009500349871814251,
        -0.09031514078378677,
        8.484696445520967e-05,
        -0.006807166151702404,
        -0.07675206661224365,
        -3.814216688624583e-05,
        -0.0005710269906558096,
        -0.07802200317382812,
        -0.0001658223627600819,
        -0.01436624675989151,
        0.0008071683696471155,
        -0.0002569971838966012,
        0.11227549612522125,
        -2.3353914002655074e-05,
        2.2592766981688328e-05,
        0.0011301400372758508,
        -0.00011527979222591966,
        -0.018775278702378273,
        0.02192683517932892,
        -0.004535583779215813,
        9.599931445336551e-07,
        -0.00047444901429116726,
        -6.64674153085798e-05,
        0.00013659425894729793,
        -8.554055966669694e-06,
        -1.7233363905688748e-05,
        -4.863706635660492e-05,
        -0.00011734945292118937,
        -3.3167641959153116e-05,
        -0.00034016239806078374,
        0.00019282297580502927,
        0.0006013102829456329,
        0.000235600266023539,
        5.349833008949645e-05,
        -0.0005157908308319747,
        -6.330006726784632e-05,
        -8.111304487101734e-05,
        -0.00018796080257743597,
        -0.00037202442763373256,
        0.011694224551320076,
        -0.00019253250502515584,
        -6.780577678000554e-05,
        0.00019319981220178306,
        -8.476908988086507e-05,
        0.0002446138532832265,
        5.785235407529399e-05,
        -0.0003588551189750433,
        -0.00021821052359882742,
        6.016819315846078e-05,
        -0.00022022308257874101,
        0.0005860768142156303,
        -0.0001506922417320311,
        -1.0463265880389372e-06,
        -5.189369403524324e-06,
        -0.011384080164134502,
        0.0001991960743907839,
        -0.0004566911666188389,
        0.0017138115363195539,
        -0.0006189632695168257,
        0.0003693169273901731,
        0.001332076615653932,
        0.00240828818641603,
        -0.0005843114922754467,
        0.00011408123100409284,
        0.0006061741732992232,
        -0.00021684680541511625,
        -0.00035507106804288924,
        -0.0005380678339861333,
        -0.0016123189125210047,
        -2.5910641852533445e-05,
        -0.0007574715418741107,
        0.0001131681929109618,
        -0.0004178626695647836,
        0.03411470353603363,
        0.00018822138372343034,
        -4.7651359636802226e-05,
        0.0003942134790122509,
        0.0003496913705021143,
        0.0009586017695255578,
        0.0001682228612480685,
        0.00037181819789111614,
        -0.0009662866359576583,
        4.524285759544e-05,
        -0.0003337154630571604,
        -1.0518982662688359e-06,
        0.034660495817661285,
        -3.863817710225703e-06,
        -0.0007022154750302434,
        0.0006202259100973606,
        0.0010314038954675198,
        0.00032037924393080175,
        0.0005273655988276005,
        0.10923123359680176,
        0.0003435021499171853,
        -0.10573870688676834,
        -0.00015311120660044253,
        -0.01812611147761345,
        0.08335432410240173,
        0.02560669556260109,
        -0.13157308101654053,
        -0.00038250681245699525,
        0.0006956529687158763,
        0.0003540778998285532,
        0.0001727130002109334,
        0.04280737414956093,
        -0.0005447561852633953,
        9.742278780322522e-05,
        -3.247742642997764e-05,
        -0.0010103118838742375,
        0.00036815283237956464,
        -0.05415097624063492,
        0.0003936624270863831,
        0.00011820631334558129,
        0.00032468425342813134,
        0.0002336952165933326,
        0.005870477296411991,
        -1.6569690330925368e-07,
        0.0004502617521211505,
        0.050876472145318985,
        0.0003747734008356929,
        -0.00019666930893436074,
        0.014978126622736454,
        0.038071077316999435,
        0.014927004463970661,
        0.0006551486440002918,
        0.127962127327919,
        0.03353182226419449,
        0.0011457622749730945,
        -0.000369583343854174,
        -0.0010899632470682263,
        -0.0012314708437770605,
        0.0009279852965846658,
        0.0007581579848192632,
        -0.0002771487052086741,
        0.04969325661659241,
        0.0008184694452211261,
        0.0006722668185830116,
        0.08399692177772522,
        -0.0004708706110250205,
        0.030564745888113976,
        -0.0006981161423027515,
        0.0010084817185997963,
        0.05561525374650955,
        0.028216589242219925,
        -0.06019552797079086,
        -0.000564399641007185,
        0.012960154563188553,
        -0.028922906145453453,
        -9.490463526162785e-09,
        0.0005002814577892423,
        0.00455746054649353,
        -0.007047695107758045,
        -0.0006632028380408883,
        0.0004714864189736545,
        0.0005922057316638529,
        0.0006749057210981846,
        0.0007482895744033158,
        -0.011943299323320389,
        -0.012895538471639156,
        -0.0006222507217898965,
        -0.032667241990566254,
        -0.0005698429304175079,
        0.005689600948244333,
        0.002949213609099388,
        0.003348318859934807,
        -0.0026713330298662186,
        -5.4062027629697695e-05,
        -0.002393855946138501,
        0.027490777894854546,
        -0.0006467736675404012,
        -0.0006318033556453884,
        -0.0004848665266763419,
        -0.002103373408317566,
        -0.0007361447787843645,
        -0.011568720452487469,
        -0.0001870797568699345,
        -0.0002523537550587207,
        0.00016471561684738845,
        -0.00302229099906981,
        -0.0009499831940047443,
        1.0926657978416188e-06,
        -0.001990915508940816,
        -0.011343756690621376,
        -0.00043416887638159096,
        0.026986919343471527,
        -0.0018065533367916942,
        -0.10658129304647446,
        0.03383453190326691,
        -0.08780031651258469,
        -0.1022648736834526,
        -0.0403585359454155,
        -0.004309607669711113,
        9.550912363920361e-05,
        0.0004583491536322981,
        -0.023805540055036545,
        -0.016468944028019905,
        -0.0005782927619293332,
        -0.00012556625006254762,
        0.0004909116541966796,
        -0.0005690198740921915,
        0.000607077032327652,
        -0.0002364616229897365,
        -0.020760877057909966,
        5.094522930448875e-05,
        0.010547644458711147,
        -0.0006275244522839785,
        -9.986508666770533e-05,
        0.001372218714095652,
        -3.3029355108737946e-06,
        -0.0020166898611932993,
        -0.057142313569784164,
        -2.2041978809284046e-05,
        4.156324393989053e-06,
        -3.4541844797786325e-05,
        -0.00016092114674393088,
        -0.0002820469089783728,
        -0.0001424355141352862,
        0.003402393078431487,
        0.007067672908306122,
        3.535682481015101e-05,
        -0.006777175236493349,
        0.00034481362672522664,
        0.0007156005594879389,
        0.0007732808007858694,
        9.235072502633557e-05,
        0.014177605509757996,
        0.00015436812827829272,
        -0.041158419102430344,
        0.0012738052755594254,
        -0.029773183166980743,
        -0.0010585624258965254,
        0.0035943479742854834,
        -0.00026975799119099975,
        -0.05010329186916351,
        -0.0003916877612937242,
        -0.0001325950725004077,
        0.000207799588679336,
        3.537698648869991e-05,
        -2.362034319958184e-05,
        -2.7341800887370482e-05,
        8.364780660485849e-05,
        0.006905998103320599,
        0.012617699801921844,
        -0.0004584626585710794,
        -3.7425286336656427e-07,
        0.01835000514984131,
        0.060392916202545166,
        0.013372604735195637,
        -0.13345424830913544,
        -0.0012661617947742343,
        -0.021175650879740715,
        0.016807617619633675,
        -0.02679862082004547,
        -0.027188191190361977,
        0.0002454127243254334,
        9.146523893832637e-07,
        -0.06585939973592758,
        0.0635949894785881,
        -0.0003712953475769609,
        0.2092934250831604,
        0.08540112525224686,
        -4.450320193427615e-05,
        0.0008818128844723105,
        -0.0019013824639841914,
        -0.0017623689491301775,
        -0.00043785496382042766,
        -0.0002886292932089418,
        0.09740935266017914,
        0.003493426600471139,
        -0.00036448397440835834,
        0.0009553361451253295,
        0.0001420474291080609,
        0.0002784305834211409,
        -0.0001173716300399974,
        -0.03764849528670311,
        -0.21876877546310425,
        -1.0601880831018207e-06,
        5.614511246676557e-05
      ]
    },
    {
      "architecture": "normalization",
      "bias": [
        -0.03925193101167679,
        -0.20741182565689087,
        -0.054375216364860535,
        -0.14372393488883972,
        -0.058800723403692245,
        -0.019256969913840294,
        -0.10635325312614441,
        -0.07515479624271393,
        -0.0641162320971489,
        -0.081718809902668,
        -0.07943873852491379,
        -0.1524408757686615,
        -0.09141901880502701,
        -0.0965307205915451,
        -0.08626322448253632,
        -0.08350645750761032,
        -0.035272277891635895,
        -0.03895174339413643,
        -0.11037169396877289,
        -0.0008235699497163296,
        -0.04253776744008064,
        -0.12238335609436035,
        -0.1076446995139122,
        -0.016945261508226395,
        -0.10313054174184799,
        -0.021670397371053696,
        -0.3029862642288208
      ],
      "weights": [
        19.286094665527344,
        5.401822090148926,
        5.5878190994262695,
        9.27945327758789,
        5.660996437072754,
        23.92353057861328,
        8.451308250427246,
        9.167911529541016,
        6.6998677253723145,
        9.207352638244629,
        4.686500549316406,
        5.038995742797852,
        6.105886936187744,
        7.417437553405762,
        9.338521003723145,
        9.955344200134277,
        20.766210556030273,
        10.29198169708252,
        5.967369079589844,
        28.09121322631836,
        18.94170379638672,
        7.659945964813232,
        4.479710102081299,
        32.42124557495117,
        10.108881950378418,
        23.736909866333008,
        3.767076015472412
      ]
    },
    {
      "activation": "rectified",
      "architecture": "dense",
      "bias": [
        -1.2701093510258943e-05,
        0.004458419978618622,
        0.00028371516964398324,
        -0.000423061748733744,
        0.004489571321755648,
        -0.0001725021720631048,
        0.0001215336233144626,
        -0.001237881719134748,
        8.414393232669681e-05,
        -0.0004979954683221877,
        0.000516758591402322,
        8.524538134224713e-05,
        0.00024255362222902477,
        0.0005881651304662228
      ],
      "weights": [
        0.0003192076983395964,
        0.18220357596874237,
        0.00029133239877410233,
        -0.00021686620311811566,
        3.625544559326954e-05,
        -0.13345298171043396,
        0.005718117579817772,
        0.0011623891768977046,
        0.0003521097532939166,
        0.0059419190511107445,
        0.0699656680226326,
        0.023893605917692184,
        0.044217146933078766,
        -0.19962193071842194,
        -0.08940281718969345,
        -0.00014084148278925568,
        0.00012882276496384293,
        0.23238743841648102,
        -0.003760291263461113,
        5.788910129922442e-06,
        -0.06268349289894104,
        -0.08768833428621292,
        0.062389448285102844,
        0.0009475629776716232,
        1.2590044207172468e-05,
        0.0002734094450715929,
        0.0950932577252388,
        0.0008370133582502604,
        -5.34725004399661e-05,
        0.02943333238363266,
        0.019953737035393715,
        -0.000473906344268471,
        0.00041289167711511254,
        0.0011661428725346923,
        0.00785941630601883,
        -0.00018708127026911825,
        -0.0002850955934263766,
        -0.05620019882917404,
        -0.001085436437278986,
        -0.004511738661676645,
        -0.004339318256825209,
        -6.186807149788365e-05,
        -0.00022754055680707097,
        -7.76708620833233e-05,
        0.0002783755480777472,
        -0.0002656856959220022,
        -2.1382056729635224e-05,
        -0.0025169840082526207,
        -0.00011735366570064798,
        -0.0004803091869689524,
        -0.0013807106297463179,
        -0.0004465493548195809,
        -0.0003681279777083546,
        0.0008854240295477211,
        1.4199760698829778e-05,
        -0.00022086851822678,
        -0.0003554720606189221,
        -0.09494942426681519,
        0.06931179761886597,
        0.0012184084625914693,
        -0.0004096953780390322,
        4.813636405742727e-05,
        -0.06838074326515198,
        -0.012563907541334629,
        -0.010735527612268925,
        -0.0004406799853313714,
        -0.0008932989439927042,
        0.0003767453308682889,
        0.057225197553634644,
        -0.03147796168923378,
        -0.0006452297093346715,
        -0.11690518260002136,
        0.00034714286448433995,
        0.01576227694749832,
        -0.00047683651791885495,
        0.008908826857805252,
        0.17584532499313354,
        0.054418399930000305,
        -0.07041151076555252,
        0.015483343042433262,
        -0.0004280766879674047,
        -0.0002578060666564852,
        -1.0149436093342956e-05,
        -0.0008814485627226532,
        -0.006286508869379759,
        0.0005670385435223579,
        0.0005026523722335696,
        0.13608989119529724,
        0.00013509381096810102,
        0.07582712918519974,
        0.0005850589950568974,
        0.05446534603834152,
        -0.002004522131755948,
        -0.00031566977850161493,
        -0.09582491219043732,
        -0.06228284537792206,
        -0.0035800733603537083,
        0.006446290295571089,
        0.001092150341719389,
        0.048330388963222504,
        -6.1030608776491135e-05,
        0.0002345983957638964,
        0.0761113092303276,
        0.09020940959453583,
        -0.00015483368770219386,
        0.000979589531198144,
        -0.0001390981487929821,
        -0.0005638552829623222,
        -0.034446701407432556,
        -0.00013203959679231048,
        -0.0012680583167821169,
        0.0004057171172462404,
        0.00011709619138855487,
        0.0627911388874054,
        0.0003998022875748575,
        -0.00042307042167522013,
        -0.018162714317440987,
        0.016834113746881485,
        -0.0011658553266897798,
        -0.020013727247714996,
        -0.024724775925278664,
        0.132517009973526,
        -0.0008606791379861534,
        -0.023194482550024986,
        -3.649853897513822e-05,
        -0.001899567199870944,
        -2.8880858735647053e-05,
        0.00020603486336767673,
        -0.00814794097095728,
        -0.04193895682692528,
        -0.11479517072439194,
        -0.002742051612585783,
        0.00029806894599460065,
        9.296790813095868e-05,
        -0.0007619144162163138,
        -0.0024388644378632307,
        0.0009774937061592937,
        0.10769381374120712,
        0.05697169154882431,
        -0.030237700790166855,
        0.00021620187908411026,
        -5.348596823750995e-05,
        0.00024608822423033416,
        0.008427711203694344,
        0.0030721700750291348,
        -0.10876194387674332,
        -0.07872003316879272,
        0.0015574123244732618,
        -1.0601994290482253e-05,
        0.023513153195381165,
        0.0005476062069647014,
        -0.0002219193265773356,
        0.06560994684696198,
        0.0006699410732835531,
        0.00014125094457995147,
        -0.0006834137602709234,
        -0.04188796877861023,
        0.11004174500703812,
        -0.008556107990443707,
        0.004686617758125067,
        -0.00038902030792087317,
        0.0016009912360459566,
        0.00020813419541809708,
        -0.032602459192276,
        0.00044535647612065077,
        0.0005037051159888506,
        -0.0070250616408884525,
        -0.00019319420971442014,
        -0.06346925348043442,
        0.11801429837942123,
        0.017091384157538414,
        -0.0002621533058118075,
        0.00022713097860105336,
        -5.565915125771426e-05,
        0.11921290308237076,
        -9.16126555239316e-06,
        -0.033390652388334274,
        0.21242904663085938,
        4.8900285037234426e-05,
        -0.06598624587059021,
        -0.0001757058489602059,
        1.6451847841381095e-05,
        0.0003042372700292617,
        -0.023401718586683273,
        0.00043820010614581406,
        -0.012095971032977104,
        -0.01953483186662197,
        -0.07396308332681656,
        -0.00026578386314213276,
        -0.0024120875168591738,
        0.0054525877349078655,
        -0.07387727499008179,
        0.08062773197889328,
        -0.0006844443269073963,
        -0.011485437862575054,
        -0.07111011445522308,
        -0.0002605507615953684,
        0.04199991747736931,
        0.00013174510968383402,
        -0.025248760357499123,
        0.1408633291721344,
        -0.013092259876430035,
        -0.00018168349924962968,
        -0.01003736536949873,
        0.0070940908044576645,
        0.0005045392317697406,
        -0.016669655218720436,
        0.02632848359644413,
        -1.9994909962406382e-05,
        0.00015507284842897207,
        0.03369661420583725,
        0.08047351241111755,
        3.9340150692623865e-07,
        0.056309256702661514,
        -0.00039515458047389984,
        0.03879661485552788,
        -0.0017902905819937587,
        -0.09361767023801804,
        0.016200145706534386,
        0.0991266518831253,
        -0.005953474435955286,
        -0.0012125648790970445,
        -0.012388287112116814,
        -0.011621899902820587,
        -0.00022775467368774116,
        -0.00429623294621706,
        -0.0008040019311010838,
        -0.0014615447726100683,
        -0.003829767694696784,
        -0.0007137744687497616,
        -0.014057178050279617,
        -0.002432209439575672,
        0.015245908871293068,
        -2.3188481463876087e-06,
        -0.10258357971906662,
        -0.0005146294133737683,
        -0.006554419174790382,
        0.0007361230091191828,
        -0.002371879294514656,
        0.007657358422875404,
        0.0002213327825302258,
        0.026994824409484863,
        -0.0006786229205317795,
        0.05405721068382263,
        -0.1561540961265564,
        0.14889857172966003,
        0.10187898576259613,
        0.0009946988429874182,
        0.00040569386328570545,
        0.02890082448720932,
        0.007937956601381302,
        -0.00048741232603788376,
        0.048941511660814285,
        -0.0005895151989534497,
        0.14353440701961517,
        -0.14073382318019867,
        0.00018323138647247106,
        0.0003170196432620287,
        -0.15494324266910553,
        -0.00040458948933519423,
        0.00010324478353140876,
        0.10891392827033997,
        0.0006292332545854151,
        -0.03801249712705612,
        0.0005029417225159705,
        -0.022753160446882248,
        0.025388700887560844,
        -0.06747523695230484,
        0.0003598737239371985,
        -0.10683596134185791,
        0.02211938053369522,
        -0.12382285296916962,
        0.0054292757995426655,
        -0.04546722024679184,
        0.03577056899666786,
        0.00026297775912098587,
        -0.00044680628343485296,
        -0.009456277824938297,
        -0.006967240013182163,
        -0.027485806494951248,
        -0.0036175257991999388,
        0.012299343012273312,
        0.013063276186585426,
        0.00010478893091203645,
        0.006457372102886438,
        0.0469987578690052,
        -0.007859463803470135,
        -0.03736552596092224,
        -0.007114976644515991,
        1.1462710062914994e-05,
        -0.00033688664552755654,
        0.01899879239499569,
        0.0004484402888920158,
        0.0010552196763455868,
        -0.027810918167233467,
        0.026472602039575577,
        -0.11174727976322174,
        -0.000671819259878248,
        -0.06500643491744995,
        -0.013189003802835941,
        0.08892885595560074,
        0.002497732173651457,
        0.16749972105026245,
        2.2313566660159267e-05,
        2.1722096789744683e-05,
        0.0001725395122775808,
        0.000226417017984204,
        0.00017110738554038107,
        0.07764647156000137,
        0.005817668978124857,
        -0.04762062802910805,
        -3.0425033401115797e-05,
        -0.00020506628789007664,
        -0.015911124646663666,
        0.000367179571185261,
        -0.20380517840385437,
        0.000219399415072985,
        -0.000312832766212523,
        0.0003081693430431187,
        0.00043229604489170015,
        0.0003536297008395195,
        0.00032161790295504034,
        0.06366334855556488,
        -0.11969675123691559,
        -9.311043686466292e-05,
        -0.009918628260493279,
        0.0002027627924690023,
        -0.0017999954288825393,
        2.3249351215781644e-05,
        -0.0009330467437393963,
        -2.0418168787728064e-05,
        -0.00287758931517601,
        0.0145893394947052,
        -4.351545067038387e-05,
        0.03210321068763733,
        -0.07903262227773666,
        0.0003258159849792719,
        0.0003664179821498692,
        -0.0013457151362672448,
        0.005670211743563414,
        -6.909274816280231e-05,
        0.06081521138548851,
        0.11932355910539627,
        -4.168359373579733e-05,
        0.000790896185208112,
        0.0027576088905334473,
        0.0006236459594219923,
        -0.0005827790009789169,
        0.059121616184711456,
        0.00015868799528107047,
        -0.002362710889428854,
        0.005523005034774542,
        -0.03602062910795212,
        -0.015375842340290546,
        -0.036831919103860855,
        -7.692475628573447e-05,
        -0.01660309173166752,
        0.0007898850017227232,
        0.0006534213898703456,
        0.06051642820239067,
        0.13116203248500824,
        2.7770738597610034e-05,
        0.09476775676012039,
        3.467091664788313e-05,
        -0.025163868442177773,
        -0.00015959655866026878,
        0.0011419174261391163,
        -0.07312063872814178,
        0.005766780581325293,
        -7.523417298216373e-05,
        0.000421326607465744,
        -0.00038688210770487785,
        -0.0438249371945858,
        0.13992010056972504,
        0.0017171433428302407,
        -0.00847426988184452,
        0.05285581573843956,
        -0.09945575892925262
      ]
    },
    {
      "architecture": "normalization",
      "bias": [
        -0.2516137659549713,
        -0.030730929225683212,
        -0.08854387700557709,
        -0.06723560392856598,
        -0.05765478312969208,
        -0.0654633417725563,
        -0.13635939359664917,
        -0.002139810472726822,
        -0.06493192911148071,
        -0.21452784538269043,
        -0.145130455493927,
        -0.10859878361225128,
        -0.1123322919011116,
        -0.07822137326002121
      ],
      "weights": [
        4.134913444519043,
        25.673173904418945,
        5.678253173828125,
        5.9130730628967285,
        11.930233001708984,
        8.964215278625488,
        6.21451997756958,
        10.478954315185547,
        11.601029396057129,
        4.271332263946533,
        6.9362664222717285,
        6.36706018447876,
        5.134762287139893,
        6.765941143035889
      ]
    },
    {
      "activation": "rectified",
      "architecture": "dense",
      "bias": [
        -0.0003414598759263754,
        0.00021280889632180333,
        -1.885595338535495e-05,
        -0.004504435695707798,
        -0.0020568615291267633,
        0.0003100998583249748,
        -0.0006143898353911936,
        -0.000520293484441936,
        0.0007286540349014103,
        -0.0005981626454740763,
        0.00029594707302749157,
        -0.0012961289612576365
      ],
      "weights": [
        0.00028134058811701834,
        -0.04156098887324333,
        0.0002015815844060853,
        0.15905912220478058,
        0.0005490745534189045,
        -0.0626773089170456,
        -0.0396995022892952,
        0.07052405178546906,
        0.009162865579128265,
        0.1896286904811859,
        5.329714622348547e-05,
        0.2489701360464096,
        0.0005338210612535477,
        9.651295113144442e-05,
        8.097827958408743e-05,
        4.323979010223411e-05,
        0.00012194103328511119,
        0.10685329884290695,
        -0.00036131124943494797,
        -0.03165430948138237,
        0.00041218032129108906,
        0.001177190337330103,
        0.07797635346651077,
        0.11345560103654861,
        -0.05125956982374191,
        -0.08212049305438995,
        -0.05993667617440224,
        0.0004686075262725353,
        -0.1540110558271408,
        -0.0009815178345888853,
        -0.06883183121681213,
        0.04179883375763893,
        -0.0006786278681829572,
        0.08624956011772156,
        -0.03344058245420456,
        1.6714335288270377e-05,
        -0.08324375748634338,
        0.05918918177485466,
        0.015030665323138237,
        -0.004397457931190729,
        0.06913554668426514,
        -0.00011395569890737534,
        0.0003071865066885948,
        8.779910422163084e-05,
        0.0225964467972517,
        -0.0193911362439394,
        -6.09555900155101e-05,
        0.0005060456460341811,
        -0.02914932742714882,
        -8.919279025576543e-06,
        -0.0014412800082936883,
        0.0319463349878788,
        0.13045883178710938,
        0.0010851708939298987,
        0.0002273654390592128,
        0.00015269569121301174,
        -0.10416769981384277,
        -0.05190325528383255,
        0.03715260699391365,
        -0.001021615113131702,
        -0.10064788907766342,
        0.021439574658870697,
        -0.1385916918516159,
        -0.006306602153927088,
        -1.8338398149353452e-05,
        -0.06880483031272888,
        -0.0006857133121229708,
        0.03311032056808472,
        -0.13931183516979218,
        0.1572086215019226,
        -0.00078359100734815,
        -0.00022482361237052828,
        0.0011156236287206411,
        -0.12520064413547516,
        -0.018793785944581032,
        -0.07366593182086945,
        -0.08333392441272736,
        -0.009432482533156872,
        0.04842071235179901,
        0.1419217735528946,
        -0.23310603201389313,
        -3.8050173316150904e-05,
        -0.00020224320178385824,
        0.1769322156906128,
        -0.1198432445526123,
        0.00039270956767722964,
        -0.03468197584152222,
        0.0007091795559972525,
        0.005106616765260696,
        -0.00017407845007255673,
        -0.0002815790066961199,
        0.041586391627788544,
        -0.0023141433484852314,
        -0.0077256206423044205,
        -0.0010233561042696238,
        0.0003875073161907494,
        -0.0061398218385875225,
        0.00039302310324274004,
        -0.226860910654068,
        9.376742673339322e-05,
        -0.13782283663749695,
        0.009318459779024124,
        -0.24287515878677368,
        0.05543842166662216,
        -0.3166436553001404,
        0.3114459812641144,
        0.12616465985774994,
        -0.2684241831302643,
        0.21163174510002136,
        -0.0006450072978623211,
        -0.12992578744888306,
        0.14672964811325073,
        -0.07726913690567017,
        -0.015007532201707363,
        0.06312336027622223,
        -0.0031719100661575794,
        -0.05494227632880211,
        -0.00482121342793107,
        -0.02145913429558277,
        0.050712671130895615,
        0.06275954842567444,
        0.14159131050109863,
        -0.05879049375653267,
        0.13059991598129272,
        -0.0011628064094111323,
        -0.0749724879860878,
        0.0004964180989190936,
        0.009133581072092056,
        0.11359414458274841,
        -0.01721159741282463,
        -0.14178568124771118,
        -0.007422915659844875,
        -0.07896596938371658,
        -0.0001791406248230487,
        -0.1415809541940689,
        0.1305132806301117,
        -0.047028690576553345,
        0.18058986961841583,
        2.7236403639108175e-06,
        -0.046350426971912384,
        -0.00010259076225338504,
        -0.00033625829382799566,
        0.07640566676855087,
        -0.00189510069321841,
        0.008498011156916618,
        -0.013317613862454891,
        0.004755364265292883,
        5.9068806876894087e-05,
        -0.00038380720070563257,
        -0.00015140256437007338,
        0.04375481233000755,
        -0.0002265874936711043,
        3.087406003032811e-05,
        0.07375770062208176,
        0.005249281879514456,
        0.012035389430820942,
        -0.01253174152225256,
        -0.0009574573487043381,
        -0.06902998685836792,
        0.00430853758007288,
        -0.01596565917134285,
        -0.0060715219005942345,
        0.07590776681900024,
        -0.06363658607006073,
        0.024780716747045517,
        -0.02557750977575779,
        -0.0006792920758016407,
        0.000356209377059713
      ]
    },
    {
      "architecture": "normalization",
      "bias": [
        -0.3157404661178589,
        -0.14811241626739502,
        -0.1040644645690918,
        -0.09324785321950912,
        -0.2135063111782074,
        -0.21215039491653442,
        -0.08534381538629532,
        -0.37743982672691345,
        -0.15979543328285217,
        -0.18938849866390228,
        -0.10106512904167175,
        -0.053728457540273666
      ],
      "weights": [
        4.128864765167236,
        7.656689167022705,
        6.80720329284668,
        11.761082649230957,
        5.6745429039001465,
        5.057845592498779,
        13.655000686645508,
        2.716627597808838,
        4.994622707366943,
        7.42578125,
        8.529845237731934,
        16.054101943969727
      ]
    },
    {
      "activation": "softmax",
      "architecture": "dense",
      "bias": [
        0.26741546392440796,
        -0.40983161330223083,
        -0.10726094990968704,
        -0.21657074987888336
      ],
      "weights": [
        -0.1793927252292633,
        -0.13817760348320007,
        -0.19576504826545715,
        -0.5118826627731323,
        -0.5716310739517212,
        -0.4608941972255707,
        -0.3351447880268097,
        0.49184882640838623,
        0.4371861517429352,
        -0.17901453375816345,
        -0.34902018308639526,
        -0.27836930751800537,
        0.16516676545143127,
        0.38814955949783325,
        -0.7739408016204834,
        -0.1457855999469757,
        0.5230515599250793,
        -0.905269205570221,
        -0.43998631834983826,
        -0.3343918025493622,
        0.5015726685523987,
        0.29676803946495056,
        -0.12599697709083557,
        -0.22200265526771545,
        0.45868903398513794,
        0.10446655005216599,
        -0.48875004053115845,
        -0.40534141659736633,
        -0.09030653536319733,
        0.2823082208633423,
        0.05215524137020111,
        -0.4974536895751953,
        -0.35133522748947144,
        0.5321222543716431,
        -0.3318425416946411,
        0.33500373363494873,
        0.3244556188583374,
        0.3979734480381012,
        0.21929946541786194,
        0.3301547169685364,
        0.4169241189956665,
        -0.3101118505001068,
        -0.34324684739112854,
        -0.27761802077293396,
        -0.532844603061676,
        -0.30883708596229553,
        -0.13985073566436768,
        0.5956087708473206
      ]
    }
  ],
  "outputs": [
    "dnnOutput_light",
    "dnnOutput_H",
    "dnnOutput_V",
    "dnnOutput_top"
  ]
}
